const theBrain =  {"levels":[
  {
    "inputs":[0.49383975476720265,0.06473781851704974,0,0,0],
    "outputs":[0,0,1,0,0,1],
    "biases":[0.3782147377082219,0.5337492635025082,-0.047366119642423626,0.5842191268034043,0.2968773177523362,-0.2923589958508135],"weights":[[-0.2995727422730531,0.6255558357952491,-0.004451953659194957,-0.7757548422327406,-0.6112363223021577,-0.45078254001919343],[-0.6870029756958826,0.504891733046784,0.413863226111235,-0.03980132634997302,-0.432236187245764,-0.4979802601977493],[-0.505474068254729,-0.1332613749108698,0.164978448343424,-0.2171948793625145,0.5859342702794058,-0.6091891248355743],[0.6687736262603431,0.26460958503911813,-0.5133471087011324,0.10483346447035391,-0.1966110136092838,0.004692358883218936],[0.31623345673458664,-0.05902560383938488,0.2902225316099838,-0.2415739725660369,-0.5392841392002533,-0.12665077874959907]]
  },
  {
    "inputs":[0,0,1,0,0,1],
    "outputs":[1,1,1,0],
    "biases":[-0.3574310446811954,-0.3036964177638807,-0.15606583746569613,0.5371330625130677],
    "weights":[[0.3152724567573217,0.2656856448118384,-0.4516455648451428,0.12902771140217867],[-0.09182287022670375,-0.0009573603053657648,0.35098559634477694,0.42033618751893337],[0.5431305619120764,-0.3585637885505984,0.32658370971463635,-0.4426407704542763],[0.20719545008133358,-0.313057824600813,-0.4937760418513173,0.08481224692981379],[0.08342774951128454,0.5928774050903245,0.6102455324195589,0.756508330454777],[0.06880373446167398,0.5649790146588053,-0.06907033550435786,0.09228895465117529]]
  }]};